digraph Tree {
node [shape=box, style="filled, rounded", color="black", fontname="helvetica"] ;
edge [fontname="helvetica"] ;
0 [label="cp <= 0.5\ngini = 0.5\nsamples = 1025\nvalue = [499, 526]\nclass = 1", fillcolor="#f5fafe"] ;
1 [label="ca <= 0.5\ngini = 0.37\nsamples = 497\nvalue = [375, 122]\nclass = 0", fillcolor="#edaa79"] ;
0 -> 1 [labeldistance=2.5, labelangle=45, headlabel="True"] ;
2 [label="thal <= 2.5\ngini = 0.5\nsamples = 219\nvalue = [112, 107]\nclass = 0", fillcolor="#fef9f6"] ;
1 -> 2 ;
3 [label="exang <= 0.5\ngini = 0.389\nsamples = 125\nvalue = [33, 92]\nclass = 1", fillcolor="#80c0ee"] ;
2 -> 3 ;
4 [label="thalach <= 96.5\ngini = 0.182\nsamples = 79\nvalue = [8, 71]\nclass = 1", fillcolor="#4fa8e8"] ;
3 -> 4 ;
5 [label="gini = 0.0\nsamples = 4\nvalue = [4, 0]\nclass = 0", fillcolor="#e58139"] ;
4 -> 5 ;
6 [label="chol <= 316.5\ngini = 0.101\nsamples = 75\nvalue = [4, 71]\nclass = 1", fillcolor="#44a3e6"] ;
4 -> 6 ;
7 [label="gini = 0.0\nsamples = 68\nvalue = [0, 68]\nclass = 1", fillcolor="#399de5"] ;
6 -> 7 ;
8 [label="age <= 61.5\ngini = 0.49\nsamples = 7\nvalue = [4, 3]\nclass = 0", fillcolor="#f8e0ce"] ;
6 -> 8 ;
9 [label="gini = 0.0\nsamples = 4\nvalue = [4, 0]\nclass = 0", fillcolor="#e58139"] ;
8 -> 9 ;
10 [label="gini = 0.0\nsamples = 3\nvalue = [0, 3]\nclass = 1", fillcolor="#399de5"] ;
8 -> 10 ;
11 [label="restecg <= 0.5\ngini = 0.496\nsamples = 46\nvalue = [25, 21]\nclass = 0", fillcolor="#fbebdf"] ;
3 -> 11 ;
12 [label="gini = 0.0\nsamples = 12\nvalue = [0, 12]\nclass = 1", fillcolor="#399de5"] ;
11 -> 12 ;
13 [label="slope <= 1.5\ngini = 0.389\nsamples = 34\nvalue = [25, 9]\nclass = 0", fillcolor="#eeae80"] ;
11 -> 13 ;
14 [label="trestbps <= 115.0\ngini = 0.191\nsamples = 28\nvalue = [25, 3]\nclass = 0", fillcolor="#e89051"] ;
13 -> 14 ;
15 [label="gini = 0.0\nsamples = 3\nvalue = [0, 3]\nclass = 1", fillcolor="#399de5"] ;
14 -> 15 ;
16 [label="gini = 0.0\nsamples = 25\nvalue = [25, 0]\nclass = 0", fillcolor="#e58139"] ;
14 -> 16 ;
17 [label="gini = 0.0\nsamples = 6\nvalue = [0, 6]\nclass = 1", fillcolor="#399de5"] ;
13 -> 17 ;
18 [label="oldpeak <= 0.65\ngini = 0.268\nsamples = 94\nvalue = [79, 15]\nclass = 0", fillcolor="#ea995f"] ;
2 -> 18 ;
19 [label="age <= 42.0\ngini = 0.499\nsamples = 31\nvalue = [16, 15]\nclass = 0", fillcolor="#fdf7f3"] ;
18 -> 19 ;
20 [label="gini = 0.0\nsamples = 10\nvalue = [10, 0]\nclass = 0", fillcolor="#e58139"] ;
19 -> 20 ;
21 [label="chol <= 237.5\ngini = 0.408\nsamples = 21\nvalue = [6, 15]\nclass = 1", fillcolor="#88c4ef"] ;
19 -> 21 ;
22 [label="gini = 0.0\nsamples = 15\nvalue = [0, 15]\nclass = 1", fillcolor="#399de5"] ;
21 -> 22 ;
23 [label="gini = 0.0\nsamples = 6\nvalue = [6, 0]\nclass = 0", fillcolor="#e58139"] ;
21 -> 23 ;
24 [label="gini = 0.0\nsamples = 63\nvalue = [63, 0]\nclass = 0", fillcolor="#e58139"] ;
18 -> 24 ;
25 [label="trestbps <= 109.0\ngini = 0.102\nsamples = 278\nvalue = [263, 15]\nclass = 0", fillcolor="#e68844"] ;
1 -> 25 ;
26 [label="chol <= 233.5\ngini = 0.457\nsamples = 17\nvalue = [11, 6]\nclass = 0", fillcolor="#f3c6a5"] ;
25 -> 26 ;
27 [label="gini = 0.0\nsamples = 6\nvalue = [0, 6]\nclass = 1", fillcolor="#399de5"] ;
26 -> 27 ;
28 [label="gini = 0.0\nsamples = 11\nvalue = [11, 0]\nclass = 0", fillcolor="#e58139"] ;
26 -> 28 ;
29 [label="chol <= 301.5\ngini = 0.067\nsamples = 261\nvalue = [252, 9]\nclass = 0", fillcolor="#e68640"] ;
25 -> 29 ;
30 [label="thalach <= 105.5\ngini = 0.027\nsamples = 218\nvalue = [215, 3]\nclass = 0", fillcolor="#e5833c"] ;
29 -> 30 ;
31 [label="oldpeak <= 0.6\ngini = 0.198\nsamples = 27\nvalue = [24, 3]\nclass = 0", fillcolor="#e89152"] ;
30 -> 31 ;
32 [label="gini = 0.0\nsamples = 3\nvalue = [0, 3]\nclass = 1", fillcolor="#399de5"] ;
31 -> 32 ;
33 [label="gini = 0.0\nsamples = 24\nvalue = [24, 0]\nclass = 0", fillcolor="#e58139"] ;
31 -> 33 ;
34 [label="gini = 0.0\nsamples = 191\nvalue = [191, 0]\nclass = 0", fillcolor="#e58139"] ;
30 -> 34 ;
35 [label="chol <= 303.5\ngini = 0.24\nsamples = 43\nvalue = [37, 6]\nclass = 0", fillcolor="#e99559"] ;
29 -> 35 ;
36 [label="gini = 0.0\nsamples = 6\nvalue = [0, 6]\nclass = 1", fillcolor="#399de5"] ;
35 -> 36 ;
37 [label="gini = 0.0\nsamples = 37\nvalue = [37, 0]\nclass = 0", fillcolor="#e58139"] ;
35 -> 37 ;
38 [label="age <= 56.5\ngini = 0.359\nsamples = 528\nvalue = [124, 404]\nclass = 1", fillcolor="#76bbed"] ;
0 -> 38 [labeldistance=2.5, labelangle=-45, headlabel="False"] ;
39 [label="oldpeak <= 3.55\ngini = 0.2\nsamples = 320\nvalue = [36, 284]\nclass = 1", fillcolor="#52a9e8"] ;
38 -> 39 ;
40 [label="thalach <= 142.5\ngini = 0.168\nsamples = 313\nvalue = [29, 284]\nclass = 1", fillcolor="#4da7e8"] ;
39 -> 40 ;
41 [label="ca <= 2.0\ngini = 0.482\nsamples = 37\nvalue = [15, 22]\nclass = 1", fillcolor="#c0e0f7"] ;
40 -> 41 ;
42 [label="fbs <= 0.5\ngini = 0.366\nsamples = 29\nvalue = [7, 22]\nclass = 1", fillcolor="#78bced"] ;
41 -> 42 ;
43 [label="thal <= 2.5\ngini = 0.211\nsamples = 25\nvalue = [3, 22]\nclass = 1", fillcolor="#54aae9"] ;
42 -> 43 ;
44 [label="gini = 0.0\nsamples = 22\nvalue = [0, 22]\nclass = 1", fillcolor="#399de5"] ;
43 -> 44 ;
45 [label="gini = 0.0\nsamples = 3\nvalue = [3, 0]\nclass = 0", fillcolor="#e58139"] ;
43 -> 45 ;
46 [label="gini = 0.0\nsamples = 4\nvalue = [4, 0]\nclass = 0", fillcolor="#e58139"] ;
42 -> 46 ;
47 [label="gini = 0.0\nsamples = 8\nvalue = [8, 0]\nclass = 0", fillcolor="#e58139"] ;
41 -> 47 ;
48 [label="trestbps <= 182.0\ngini = 0.096\nsamples = 276\nvalue = [14, 262]\nclass = 1", fillcolor="#44a2e6"] ;
40 -> 48 ;
49 [label="trestbps <= 111.0\ngini = 0.077\nsamples = 273\nvalue = [11, 262]\nclass = 1", fillcolor="#41a1e6"] ;
48 -> 49 ;
50 [label="slope <= 0.5\ngini = 0.298\nsamples = 44\nvalue = [8, 36]\nclass = 1", fillcolor="#65b3eb"] ;
49 -> 50 ;
51 [label="gini = 0.0\nsamples = 4\nvalue = [4, 0]\nclass = 0", fillcolor="#e58139"] ;
50 -> 51 ;
52 [label="thalach <= 152.5\ngini = 0.18\nsamples = 40\nvalue = [4, 36]\nclass = 1", fillcolor="#4fa8e8"] ;
50 -> 52 ;
53 [label="age <= 49.0\ngini = 0.5\nsamples = 8\nvalue = [4, 4]\nclass = 0", fillcolor="#ffffff"] ;
52 -> 53 ;
54 [label="gini = 0.0\nsamples = 4\nvalue = [4, 0]\nclass = 0", fillcolor="#e58139"] ;
53 -> 54 ;
55 [label="gini = 0.0\nsamples = 4\nvalue = [0, 4]\nclass = 1", fillcolor="#399de5"] ;
53 -> 55 ;
56 [label="gini = 0.0\nsamples = 32\nvalue = [0, 32]\nclass = 1", fillcolor="#399de5"] ;
52 -> 56 ;
57 [label="thal <= 2.5\ngini = 0.026\nsamples = 229\nvalue = [3, 226]\nclass = 1", fillcolor="#3c9ee5"] ;
49 -> 57 ;
58 [label="gini = 0.0\nsamples = 197\nvalue = [0, 197]\nclass = 1", fillcolor="#399de5"] ;
57 -> 58 ;
59 [label="ca <= 0.5\ngini = 0.17\nsamples = 32\nvalue = [3, 29]\nclass = 1", fillcolor="#4da7e8"] ;
57 -> 59 ;
60 [label="gini = 0.0\nsamples = 29\nvalue = [0, 29]\nclass = 1", fillcolor="#399de5"] ;
59 -> 60 ;
61 [label="gini = 0.0\nsamples = 3\nvalue = [3, 0]\nclass = 0", fillcolor="#e58139"] ;
59 -> 61 ;
62 [label="gini = 0.0\nsamples = 3\nvalue = [3, 0]\nclass = 0", fillcolor="#e58139"] ;
48 -> 62 ;
63 [label="gini = 0.0\nsamples = 7\nvalue = [7, 0]\nclass = 0", fillcolor="#e58139"] ;
39 -> 63 ;
64 [label="sex <= 0.5\ngini = 0.488\nsamples = 208\nvalue = [88, 120]\nclass = 1", fillcolor="#cae5f8"] ;
38 -> 64 ;
65 [label="age <= 62.5\ngini = 0.245\nsamples = 77\nvalue = [11, 66]\nclass = 1", fillcolor="#5aade9"] ;
64 -> 65 ;
66 [label="ca <= 0.5\ngini = 0.483\nsamples = 27\nvalue = [11, 16]\nclass = 1", fillcolor="#c1e0f7"] ;
65 -> 66 ;
67 [label="gini = 0.0\nsamples = 13\nvalue = [0, 13]\nclass = 1", fillcolor="#399de5"] ;
66 -> 67 ;
68 [label="trestbps <= 116.0\ngini = 0.337\nsamples = 14\nvalue = [11, 3]\nclass = 0", fillcolor="#eca36f"] ;
66 -> 68 ;
69 [label="gini = 0.0\nsamples = 3\nvalue = [0, 3]\nclass = 1", fillcolor="#399de5"] ;
68 -> 69 ;
70 [label="gini = 0.0\nsamples = 11\nvalue = [11, 0]\nclass = 0", fillcolor="#e58139"] ;
68 -> 70 ;
71 [label="gini = 0.0\nsamples = 50\nvalue = [0, 50]\nclass = 1", fillcolor="#399de5"] ;
65 -> 71 ;
72 [label="chol <= 245.5\ngini = 0.485\nsamples = 131\nvalue = [77, 54]\nclass = 0", fillcolor="#f7d9c4"] ;
64 -> 72 ;
73 [label="oldpeak <= 2.4\ngini = 0.485\nsamples = 82\nvalue = [34, 48]\nclass = 1", fillcolor="#c5e2f7"] ;
72 -> 73 ;
74 [label="ca <= 0.5\ngini = 0.415\nsamples = 68\nvalue = [20, 48]\nclass = 1", fillcolor="#8bc6f0"] ;
73 -> 74 ;
75 [label="age <= 65.5\ngini = 0.184\nsamples = 39\nvalue = [4, 35]\nclass = 1", fillcolor="#50a8e8"] ;
74 -> 75 ;
76 [label="gini = 0.0\nsamples = 32\nvalue = [0, 32]\nclass = 1", fillcolor="#399de5"] ;
75 -> 76 ;
77 [label="chol <= 228.5\ngini = 0.49\nsamples = 7\nvalue = [4, 3]\nclass = 0", fillcolor="#f8e0ce"] ;
75 -> 77 ;
78 [label="gini = 0.0\nsamples = 4\nvalue = [4, 0]\nclass = 0", fillcolor="#e58139"] ;
77 -> 78 ;
79 [label="gini = 0.0\nsamples = 3\nvalue = [0, 3]\nclass = 1", fillcolor="#399de5"] ;
77 -> 79 ;
80 [label="ca <= 2.5\ngini = 0.495\nsamples = 29\nvalue = [16, 13]\nclass = 0", fillcolor="#fae7da"] ;
74 -> 80 ;
81 [label="oldpeak <= 0.3\ngini = 0.397\nsamples = 22\nvalue = [16, 6]\nclass = 0", fillcolor="#efb083"] ;
80 -> 81 ;
82 [label="fbs <= 0.5\ngini = 0.48\nsamples = 10\nvalue = [4, 6]\nclass = 1", fillcolor="#bddef6"] ;
81 -> 82 ;
83 [label="gini = 0.0\nsamples = 4\nvalue = [4, 0]\nclass = 0", fillcolor="#e58139"] ;
82 -> 83 ;
84 [label="gini = 0.0\nsamples = 6\nvalue = [0, 6]\nclass = 1", fillcolor="#399de5"] ;
82 -> 84 ;
85 [label="gini = 0.0\nsamples = 12\nvalue = [12, 0]\nclass = 0", fillcolor="#e58139"] ;
81 -> 85 ;
86 [label="gini = 0.0\nsamples = 7\nvalue = [0, 7]\nclass = 1", fillcolor="#399de5"] ;
80 -> 86 ;
87 [label="gini = 0.0\nsamples = 14\nvalue = [14, 0]\nclass = 0", fillcolor="#e58139"] ;
73 -> 87 ;
88 [label="oldpeak <= 3.55\ngini = 0.215\nsamples = 49\nvalue = [43, 6]\nclass = 0", fillcolor="#e99355"] ;
72 -> 88 ;
89 [label="trestbps <= 119.0\ngini = 0.122\nsamples = 46\nvalue = [43, 3]\nclass = 0", fillcolor="#e78a47"] ;
88 -> 89 ;
90 [label="gini = 0.0\nsamples = 3\nvalue = [0, 3]\nclass = 1", fillcolor="#399de5"] ;
89 -> 90 ;
91 [label="gini = 0.0\nsamples = 43\nvalue = [43, 0]\nclass = 0", fillcolor="#e58139"] ;
89 -> 91 ;
92 [label="gini = 0.0\nsamples = 3\nvalue = [0, 3]\nclass = 1", fillcolor="#399de5"] ;
88 -> 92 ;
}